svm_type c_svc
kernel_type rbf
gamma 0.00207039
nr_class 5
total_sv 566
rho 0.116967 0.702289 0.420213 0.112958 0.632048 0.387695 0.0334451 0.104602 -0.579938 -0.377464
label 1 2 3 4 5
nr_sv 139 139 99 59 130
SV
1 1 0 1 59:1 98:1 125:1 129:1 145:1 389:1 
1 1 0.5262376725305073 1 59:1 98:1 115:1 128:1 135:1 149:1 154:1 
1 1 1 1 4:1 98:1 111:1 379:1 
1 0 0 1 59:1 98:1 115:1 116:1 129:1 379:1 
1 0.5078998779036292 0 1 59:1 98:1 122:1 131:1 132:1 133:1 389:1 
1 0 0 1 59:1 111:1 112:1 120:1 132:1 
1 1 0 1 59:1 111:1 115:1 129:1 381:1 
1 1 1 1 111:1 114:1 118:1 130:1 150:1 
1 1 1 1 114:1 122:1 129:1 145:1 146:1 
1 1 0 1 59:1 98:1 121:1 124:1 125:1 128:1 146:1 
1 1 0 1 59:1 112:1 119:1 128:1 
1 1 1 1 98:1 135:1 145:1 146:1 404:1 
1 0 0 1 59:1 98:1 111:1 124:1 130:1 389:1 406:1 
1 0 0 0 27:1 59:1 98:1 112:1 120:1 128:1 
1 1 0.8601981660788771 1 59:1 98:1 122:1 125:1 389:1 
1 1 1 1 111:1 112:1 113:1 121:1 129:1 138:1 
1 1 1 1 111:1 113:1 114:1 118:1 128:1 406:1 
1 1 1 1 112:1 120:1 376:1 406:1 
1 1 1 1 4:1 118:1 120:1 382:1 383:1 385:1 389:1 
1 0.8549766070512033 0 1 59:1 98:1 115:1 120:1 133:1 401:1 
1 1 0 1 59:1 98:1 115:1 120:1 138:1 
1 1 0.4841082580497999 1 59:1 98:1 114:1 147:1 376:1 
1 1 1 1 115:1 133:1 139:1 401:1 
1 0 0 0 59:1 111:1 112:1 115:1 119:1 124:1 
1 1 1 1 59:1 115:1 129:1 144:1 
1 1 1 1 48:1 111:1 144:1 389:1 
1 1 1 1 59:1 128:1 385:1 406:1 
1 1 1 1 112:1 119:1 122:1 135:1 404:1 
1 1 0.1165376489324525 1 59:1 98:1 122:1 146:1 153:1 406:1 
1 0 0 0 59:1 98:1 112:1 121:1 125:1 128:1 385:1 
1 0 0 0.8503739174416274 59:1 98:1 111:1 129:1 133:1 135:1 381:1 
1 0 0 0.2611365639316876 4:1 27:1 59:1 98:1 114:1 135:1 147:1 375:1 376:1 
1 1 0 1 59:1 98:1 122:1 139:1 144:1 153:1 
1 0.5738797029200858 0 1 4:1 59:1 115:1 129:1 132:1 137:1 147:1 382:1 
1 1 1 1 4:1 59:1 118:1 376:1 
1 0 0 1 59:1 111:1 112:1 119:1 401:1 
1 0 0 0 4:1 59:1 98:1 119:1 124:1 125:1 129:1 132:1 145:1 147:1 157:1 376:1 389:1 
1 1 0 1 59:1 112:1 119:1 125:1 130:1 145:1 154:1 
1 1 1 1 59:1 133:1 137:1 149:1 157:1 375:1 385:1 
1 1 1 1 111:1 114:1 115:1 383:1 
1 0.4730963126398169 0 1 4:1 59:1 115:1 122:1 129:1 149:1 385:1 
1 1 1 1 59:1 124:1 137:1 151:1 
1 1 1 1 59:1 113:1 122:1 401:1 
1 0 0 0 59:1 98:1 111:1 112:1 
0.4041153999079335 0 0 0 4:1 59:1 111:1 112:1 113:1 125:1 144:1 
1 0 0 1 59:1 98:1 112:1 119:1 147:1 
1 1 0 1 112:1 113:1 114:1 115:1 124:1 128:1 149:1 151:1 383:1 
1 1 1 1 111:1 115:1 124:1 137:1 376:1 
1 1 1 1 59:1 115:1 132:1 133:1 
1 0 0 1 4:1 59:1 113:1 115:1 122:1 125:1 381:1 
1 1 1 1 59:1 98:1 121:1 132:1 381:1 
1 1 1 1 59:1 122:1 134:1 136:1 375:1 
1 0 0 0.7886162268301915 59:1 98:1 113:1 115:1 125:1 135:1 
1 1 0 1 4:1 59:1 119:1 120:1 375:1 
1 1 0 1 59:1 111:1 113:1 114:1 138:1 
1 1 0 1 59:1 111:1 113:1 120:1 406:1 
1 1 1 1 113:1 120:1 125:1 383:1 
1 1 0.7865119739804187 1 59:1 111:1 120:1 383:1 
1 0 0 1 59:1 111:1 113:1 114:1 121:1 132:1 153:1 383:1 
0.9561281734179958 0 0 0 59:1 98:1 111:1 113:1 125:1 131:1 
1 1 1 1 59:1 114:1 137:1 385:1 
1 1 0 1 59:1 98:1 113:1 120:1 153:1 
1 1 1 1 59:1 112:1 130:1 138:1 145:1 
1 1 1 1 114:1 124:1 151:1 376:1 
1 0 0 0.5899630328727129 59:1 111:1 114:1 115:1 132:1 137:1 147:1 389:1 
1 1 1 1 59:1 119:1 122:1 138:1 
1 1 1 1 59:1 124:1 132:1 144:1 151:1 
1 1 0 1 59:1 111:1 115:1 130:1 389:1 
1 1 1 1 59:1 112:1 129:1 381:1 
1 0.385459111287565 0 1 4:1 59:1 121:1 125:1 132:1 145:1 146:1 376:1 383:1 
1 0.5683239875260412 0 1 59:1 98:1 125:1 128:1 129:1 145:1 406:1 
1 1 1 1 98:1 133:1 389:1 406:1 
1 0 0 0 4:1 59:1 112:1 113:1 119:1 129:1 
1 1 1 1 4:1 98:1 119:1 137:1 
1 0 0 1 59:1 111:1 112:1 113:1 
1 1 0.2791649452588519 1 4:1 111:1 112:1 114:1 132:1 
1 1 0.3130234242571129 1 59:1 112:1 129:1 136:1 
1 0 0 1 59:1 98:1 111:1 125:1 145:1 406:1 
1 1 1 1 59:1 112:1 139:1 406:1 
1 1 0 1 59:1 98:1 134:1 136:1 401:1 
1 0.5464222543206004 0 1 59:1 98:1 111:1 118:1 136:1 
1 0.3418612354065959 0 1 59:1 111:1 114:1 116:1 121:1 146:1 385:1 386:1 
1 1 1 1 4:1 98:1 113:1 116:1 
1 0 0 0 4:1 59:1 98:1 111:1 113:1 114:1 118:1 376:1 389:1 
1 1 0 1 4:1 59:1 113:1 382:1 386:1 
1 1 0 1 59:1 113:1 115:1 123:1 124:1 154:1 157:1 386:1 
1 1 1 1 111:1 113:1 119:1 123:1 128:1 151:1 381:1 385:1 
1 0 0 0.6800725574593244 59:1 98:1 112:1 136:1 376:1 381:1 386:1 389:1 
1 1 1 1 4:1 59:1 124:1 150:1 
0 0 0 1 59:1 98:1 111:1 112:1 147:1 382:1 401:1 
1 0 0 1 59:1 112:1 113:1 114:1 128:1 
1 1 1 1 112:1 134:1 136:1 139:1 
1 0 0 0.5176691072198306 4:1 59:1 111:1 116:1 122:1 376:1 382:1 
1 1 0.5025364329481282 1 4:1 59:1 120:1 122:1 
1 0 0 1 59:1 98:1 111:1 139:1 382:1 401:1 
1 1 1 1 4:1 112:1 134:1 383:1 
1 1 0 1 59:1 111:1 112:1 130:1 401:1 
1 1 0.5020663942396679 1 59:1 112:1 382:1 383:1 
1 0 0 0.9091042089236264 27:1 45:1 59:1 98:1 112:1 118:1 382:1 
1 1 1 1 59:1 98:1 119:1 131:1 
1 1 0 1 59:1 98:1 112:1 131:1 
1 1 0 1 59:1 111:1 121:1 131:1 376:1 382:1 406:1 
1 1 1 1 4:1 134:1 136:1 383:1 
1 1 0 1 59:1 111:1 112:1 134:1 
1 1 0 1 4:1 27:1 59:1 112:1 
1 0 0 0 59:1 98:1 111:1 114:1 130:1 383:1 
1 0 0 1 59:1 112:1 114:1 122:1 136:1 150:1 151:1 401:1 
1 1 0 1 59:1 112:1 122:1 151:1 
1 1 0.8110600308359343 1 59:1 112:1 134:1 401:1 
1 1 1 1 112:1 123:1 124:1 379:1 
1 0 0 1 4:1 59:1 112:1 113:1 375:1 
1 0 0 1 4:1 59:1 112:1 113:1 375:1 
1 1 1 1 4:1 111:1 112:1 289:1 379:1 
1 1 1 1 59:1 114:1 379:1 386:1 
1 0 0 0 59:1 111:1 113:1 115:1 116:1 120:1 
1 1 1 1 59:1 113:1 119:1 386:1 
1 0 0 1 4:1 59:1 98:1 114:1 383:1 
1 1 0.8524632560553688 1 59:1 98:1 113:1 329:1 
1 1 1 1 113:1 119:1 123:1 157:1 
1 1 1 1 111:1 112:1 116:1 121:1 130:1 
1 1 1 1 4:1 27:1 137:1 379:1 
1 1 0.300270640994581 1 59:1 98:1 114:1 121:1 
1 0 0 1 27:1 59:1 111:1 114:1 124:1 150:1 151:1 385:1 386:1 
1 0 0 0.3455285487040978 59:1 111:1 112:1 114:1 138:1 
1 0 0 1 27:1 59:1 98:1 113:1 383:1 385:1 386:1 
1 1 0 1 59:1 98:1 115:1 116:1 123:1 131:1 154:1 
1 1 0 1 4:1 59:1 98:1 135:1 376:1 
1 1 0.6937950094029355 1 59:1 113:1 119:1 131:1 382:1 386:1 
1 0 0 1 4:1 59:1 112:1 115:1 138:1 386:1 
0.8895902471000995 0 0 0 59:1 98:1 113:1 120:1 124:1 134:1 135:1 136:1 383:1 
1 1 1 1 112:1 134:1 136:1 139:1 
1 1 0 1 59:1 111:1 116:1 122:1 389:1 
1 1 0 1 59:1 112:1 115:1 139:1 383:1 
1 0 0 1 4:1 59:1 111:1 113:1 116:1 118:1 123:1 130:1 386:1 401:1 
1 0 0 1 59:1 98:1 111:1 146:1 381:1 382:1 
1 1 0 1 59:1 111:1 112:1 138:1 
1 1 1 1 98:1 111:1 146:1 379:1 381:1 382:1 
1 1 0 1 59:1 98:1 118:1 123:1 379:1 382:1 389:1 
1 1 1 1 4:1 113:1 116:1 382:1 404:1 
-1 1 0 1 2:1 3:1 5:1 10:1 14:1 404:1 
-1 1 0 1 2:1 23:1 31:1 376:1 404:1 481:1 
-1 0 0 1 2:1 7:1 386:1 404:1 475:1 
-1 1 1 1 59:1 98:1 111:1 112:1 144:1 
-1 1 0 1 1:1 6:1 7:1 15:1 404:1 478:1 
-1 1 1 1 10:1 11:1 386:1 389:1 
-1 1 1 1 2:1 13:1 385:1 404:1 
-1 1 1 1 4:1 5:1 7:1 22:1 386:1 
-1 0 0 1 0:1 38:1 385:1 404:1 475:1 481:1 
-1 1 1 1 11:1 18:1 386:1 481:1 
-1 0 0 1 0:1 1:1 6:1 375:1 404:1 475:1 
-1 1 1 1 3:1 56:1 383:1 385:1 478:1 
-1 1 1 1 1:1 16:1 381:1 385:1 406:1 475:1 
-1 1 0 1 0:1 11:1 376:1 381:1 404:1 
-1 1 1 1 1:1 11:1 38:1 404:1 
-1 1 1 1 4:1 11:1 20:1 36:1 
-1 1 0.5567231312818455 1 5:1 10:1 13:1 17:1 30:1 382:1 404:1 
-1 0.4266132639998757 0 1 0:1 8:1 13:1 42:1 383:1 404:1 478:1 
-1 0 0 0 2:1 4:1 5:1 15:1 386:1 404:1 475:1 478:1 
-1 1 1 1 4:1 7:1 10:1 385:1 
-1 0 0 1 1:1 4:1 34:1 42:1 58:1 376:1 379:1 389:1 404:1 478:1 
-1 1 0 1 0:1 389:1 404:1 475:1 
-1 1 0 1 376:1 386:1 404:1 475:1 
-1 1 0 1 2:1 13:1 375:1 385:1 389:1 404:1 
-1 1 1 1 98:1 111:1 375:1 376:1 379:1 381:1 
-1 1 1 1 5:1 8:1 12:1 20:1 389:1 
-1 1 1 1 8:1 98:1 375:1 381:1 
-1 1 0.4021268576554664 1 2:1 7:1 9:1 111:1 375:1 406:1 478:1 481:1 
-1 0 0 0 4:1 5:1 6:1 11:1 15:1 381:1 383:1 385:1 389:1 404:1 475:1 478:1 
-1 0.4187950804276097 0 1 10:1 12:1 16:1 376:1 404:1 475:1 
-1 1 1 1 3:1 9:1 20:1 478:1 
-1 1 0 1 1:1 389:1 404:1 478:1 
-1 1 0 1 4:1 8:1 17:1 27:1 381:1 383:1 389:1 475:1 478:1 
-1 0 0 1 1:1 3:1 4:1 5:1 8:1 375:1 382:1 389:1 404:1 406:1 
-1 1 0.5968905991114963 1 3:1 6:1 462:1 475:1 478:1 
-1 0 0 0 1:1 2:1 15:1 385:1 404:1 478:1 481:1 
-1 0 0 0 1:1 3:1 15:1 17:1 58:1 375:1 385:1 404:1 478:1 
-1 0 0 1 3:1 4:1 20:1 22:1 376:1 404:1 478:1 
-1 1 0 1 3:1 21:1 23:1 31:1 375:1 385:1 475:1 478:1 
-1 0 0 1 3:1 8:1 12:1 17:1 33:1 385:1 404:1 475:1 
-1 1 0 1 9:1 20:1 376:1 381:1 404:1 
-1 0 0 1 0:1 1:1 4:1 49:1 375:1 376:1 404:1 
-1 1 0.3349413961224952 1 1:1 2:1 4:1 386:1 389:1 478:1 
-1 0 0 0 0:1 3:1 10:1 20:1 27:1 58:1 376:1 385:1 386:1 475:1 478:1 
-1 0 0 1 3:1 11:1 16:1 379:1 385:1 404:1 406:1 475:1 478:1 
-1 0 0 1 0:1 4:1 23:1 385:1 404:1 475:1 
-1 1 1 1 20:1 43:1 404:1 478:1 
-1 1 0.08441930858016244 1 0:1 14:1 375:1 404:1 
-1 1 0.1805127166453052 1 5:1 13:1 404:1 475:1 
-1 1 0 1 4:1 7:1 14:1 18:1 382:1 475:1 
-1 1 0.1800478429408209 1 3:1 8:1 12:1 17:1 376:1 379:1 475:1 
-1 1 0 1 2:1 3:1 8:1 12:1 17:1 48:1 376:1 379:1 475:1 
-0.654215348533602 0 0 0.02325174192934686 3:1 6:1 8:1 12:1 32:1 48:1 376:1 379:1 385:1 404:1 462:1 475:1 
-1 1 1 1 13:1 50:1 375:1 385:1 404:1 
-1 0 0 1 1:1 9:1 11:1 50:1 375:1 382:1 385:1 404:1 406:1 
-1 0 0 0 2:1 3:1 6:1 404:1 475:1 478:1 
-1 1 0 1 4:1 5:1 9:1 23:1 385:1 386:1 475:1 481:1 
-1 1 1 1 43:1 51:1 406:1 478:1 
-1 1 0 1 5:1 376:1 385:1 404:1 
-1 1 1 1 7:1 10:1 389:1 404:1 
-1 1 0 1 0:1 1:1 4:1 11:1 35:1 56:1 475:1 
-1 0 0 1 2:1 7:1 10:1 15:1 383:1 385:1 386:1 404:1 462:1 478:1 
-1 1 0 1 4:1 5:1 56:1 385:1 386:1 404:1 
-1 1 1 1 1:1 7:1 8:1 12:1 16:1 389:1 
-1 0 0 0 3:1 5:1 10:1 14:1 385:1 386:1 404:1 475:1 
-1 1 1 1 0:1 2:1 59:1 376:1 
-1 1 1 1 0:1 56:1 385:1 404:1 
-1 0.3122426834855731 0 1 1:1 376:1 404:1 475:1 
-1 0 0 1 5:1 43:1 404:1 475:1 478:1 
-1 1 0.3058673787122774 1 5:1 14:1 18:1 33:1 404:1 
-1 1 0 1 2:1 28:1 34:1 54:1 376:1 385:1 404:1 
-1 1 1 1 12:1 32:1 53:1 375:1 404:1 
-1 1 1 1 5:1 43:1 385:1 478:1 
-1 1 0 1 42:1 54:1 404:1 462:1 475:1 
-1 1 1 1 2:1 22:1 34:1 404:1 
-1 1 1 1 5:1 33:1 404:1 481:1 
-1 0 0 1 2:1 376:1 404:1 462:1 475:1 
-1 1 0.1871012623190859 1 0:1 35:1 404:1 475:1 
-1 1 1 1 1:1 16:1 18:1 20:1 30:1 475:1 
-1 1 1 1 5:1 21:1 51:1 376:1 462:1 475:1 
-1 1 0 1 6:1 14:1 404:1 462:1 478:1 
-1 1 1 1 2:1 22:1 462:1 475:1 
-1 1 1 1 2:1 6:1 14:1 20:1 
-1 1 1 1 1:1 33:1 381:1 475:1 
-1 1 0 1 3:1 32:1 36:1 53:1 376:1 389:1 462:1 475:1 
-1 1 0.6945403536318597 1 4:1 13:1 404:1 478:1 
-1 1 1 1 0:1 4:1 376:1 475:1 
-1 1 1 1 7:1 18:1 31:1 37:1 375:1 376:1 
-1 1 1 1 0:1 3:1 8:1 32:1 42:1 53:1 
-1 1 1 1 6:1 7:1 24:1 386:1 
-1 1 1 1 0:1 4:1 30:1 42:1 
-1 0 0 1 4:1 15:1 16:1 51:1 376:1 404:1 478:1 
-1 1 0 1 0:1 1:1 9:1 21:1 382:1 475:1 478:1 
-1 1 1 1 18:1 24:1 33:1 404:1 481:1 
-0.5956184718924268 0 0 0 15:1 34:1 56:1 376:1 404:1 462:1 475:1 478:1 481:1 
-1 0 0 0 0:1 1:1 2:1 9:1 32:1 53:1 381:1 404:1 478:1 
-1 1 0.6783579985949166 1 12:1 14:1 16:1 27:1 386:1 404:1 
-1 0 0 1 0:1 3:1 385:1 404:1 478:1 481:1 
-1 0.6162820127497315 0 1 0:1 1:1 17:1 21:1 27:1 389:1 475:1 478:1 
-1 1 1 1 17:1 20:1 22:1 25:1 48:1 376:1 
-1 1 1 1 1:1 14:1 25:1 462:1 
-1 1 0 1 20:1 376:1 404:1 481:1 
-1 1 0.3278109388330595 1 1:1 4:1 8:1 20:1 475:1 
-1 1 1 1 12:1 25:1 32:1 404:1 
-1 1 1 1 3:1 30:1 36:1 54:1 462:1 
-1 0 0 1 0:1 7:1 382:1 404:1 478:1 
-1 1 1 1 21:1 49:1 50:1 382:1 404:1 
-1 1 0 1 0:1 1:1 32:1 38:1 43:1 382:1 386:1 478:1 481:1 
-1 0 0 0.2365798087549986 0:1 1:1 2:1 15:1 30:1 51:1 404:1 478:1 
-1 0 0 0 1:1 15:1 376:1 404:1 475:1 478:1 481:1 
-1 0 0 1 2:1 8:1 20:1 375:1 404:1 478:1 
-1 0 0 1 0:1 2:1 21:1 23:1 25:1 31:1 42:1 404:1 478:1 
-1 0 0 1 2:1 14:1 18:1 50:1 404:1 475:1 481:1 
-1 1 0 1 2:1 3:1 25:1 31:1 34:1 48:1 375:1 404:1 
-1 0.6984283127129407 0 1 0:1 1:1 21:1 404:1 478:1 
-1 0 0 0 0:1 2:1 9:1 22:1 48:1 54:1 375:1 381:1 404:1 475:1 481:1 
-1 0 0 1 3:1 5:1 6:1 9:1 11:1 376:1 404:1 475:1 481:1 
-1 1 1 1 0:1 376:1 382:1 478:1 
-1 1 1 1 23:1 28:1 382:1 404:1 478:1 
-1 1 1 1 34:1 53:1 385:1 404:1 
-1 1 1 1 0:1 9:1 32:1 386:1 
-1 0 0 1 0:1 5:1 31:1 33:1 379:1 383:1 404:1 478:1 
-1 0 0 1 11:1 58:1 375:1 404:1 475:1 478:1 
-0 0 0 1 1:1 2:1 11:1 13:1 15:1 379:1 381:1 404:1 475:1 478:1 
-1 1 1 1 28:1 35:1 379:1 462:1 475:1 478:1 
-1 1 1 1 34:1 404:1 406:1 462:1 
-1 1 1 1 0:1 1:1 3:1 28:1 56:1 
-1 0.9700227597655926 0 1 2:1 4:1 5:1 376:1 404:1 
-1 0.889313987241525 0 1 2:1 9:1 381:1 382:1 404:1 478:1 
-1 0 0 1 0:1 22:1 404:1 475:1 478:1 
-1 1 0.06480728038915809 1 3:1 4:1 11:1 17:1 25:1 382:1 478:1 481:1 
-1 0.1191872602129572 0 1 11:1 14:1 17:1 21:1 382:1 404:1 478:1 
-1 1 1 1 6:1 14:1 23:1 379:1 478:1 481:1 
-1 1 1 1 7:1 8:1 48:1 382:1 475:1 
-1 1 1 1 0:1 7:1 8:1 14:1 23:1 24:1 
-1 0 0 0 0:1 2:1 4:1 9:1 11:1 17:1 20:1 24:1 25:1 28:1 36:1 48:1 376:1 389:1 462:1 478:1 
-1 1 1 1 6:1 14:1 25:1 462:1 
-1 1 0.3048274880482024 1 20:1 376:1 404:1 481:1 
-1 1 0 1 3:1 36:1 404:1 462:1 475:1 
-0.9680142432720978 -1 0 0.1788120350298168 61:1 85:1 109:1 378:1 400:1 407:1 419:1 421:1 423:1 424:1 427:1 428:1 438:1 442:1 443:1 445:1 458:1 463:1 483:1 
-1 -1 1 1 73:1 378:1 407:1 419:1 424:1 428:1 439:1 443:1 463:1 
-1 -1 0.2995158686375785 1 380:1 390:1 407:1 416:1 420:1 424:1 428:1 438:1 441:1 445:1 455:1 480:1 
-1 -1 1 1 108:1 405:1 407:1 420:1 423:1 424:1 439:1 441:1 451:1 455:1 463:1 480:1 
-1 -1 1 1 108:1 407:1 423:1 424:1 428:1 442:1 451:1 463:1 
-1 -1 1 1 68:1 370:1 397:1 403:1 407:1 408:1 420:1 428:1 468:1 
-0 -0.05749169478269241 0 0 61:1 346:1 370:1 378:1 405:1 407:1 424:1 428:1 436:1 439:1 443:1 445:1 468:1 483:1 
-0.2583801948793438 -0.6053155494631666 0 0 61:1 339:1 354:1 371:1 372:1 378:1 390:1 392:1 403:1 407:1 416:1 424:1 427:1 436:1 439:1 442:1 443:1 445:1 455:1 458:1 
-1 -1 0 1 339:1 346:1 358:1 368:1 370:1 392:1 403:1 408:1 412:1 416:1 424:1 427:1 428:1 442:1 455:1 458:1 
-1 -1 0 0.2981980608215755 78:1 346:1 352:1 358:1 378:1 391:1 400:1 407:1 408:1 412:1 416:1 424:1 428:1 438:1 439:1 443:1 455:1 
-1 -1 1 1 358:1 405:1 412:1 416:1 424:1 427:1 436:1 445:1 461:1 468:1 
-1 -1 0 1 344:1 346:1 384:1 395:1 407:1 409:1 412:1 420:1 421:1 428:1 442:1 451:1 
-1 -1 0 1 73:1 94:1 362:1 378:1 396:1 397:1 407:1 409:1 421:1 427:1 428:1 439:1 442:1 443:1 
-1 -1 1 1 61:1 346:1 362:1 370:1 378:1 407:1 408:1 424:1 439:1 443:1 445:1 
-1 -1 0.5000450679157045 1 351:1 370:1 392:1 407:1 420:1 423:1 428:1 436:1 439:1 483:1 
-1 -1 1 1 68:1 351:1 400:1 403:1 405:1 407:1 427:1 436:1 445:1 458:1 463:1 
-0.1818451471082963 -0.4916127814800945 0 0 65:1 80:1 85:1 346:1 351:1 378:1 400:1 402:1 405:1 407:1 419:1 421:1 436:1 438:1 439:1 443:1 445:1 448:1 463:1 
-1 -1 0 1 80:1 94:1 351:1 395:1 399:1 400:1 402:1 405:1 409:1 412:1 419:1 420:1 423:1 424:1 428:1 439:1 442:1 445:1 483:1 
-1 -1 0 1 77:1 80:1 346:1 368:1 395:1 402:1 405:1 408:1 415:1 428:1 436:1 439:1 448:1 463:1 466:1 483:1 
-1 -1 0 1 61:1 77:1 351:1 378:1 402:1 407:1 428:1 439:1 441:1 442:1 443:1 445:1 483:1 
-1 -1 0 1 346:1 368:1 395:1 408:1 409:1 415:1 417:1 420:1 428:1 439:1 443:1 445:1 
-1 -1 0 1 61:1 378:1 392:1 395:1 407:1 409:1 420:1 427:1 428:1 443:1 445:1 448:1 458:1 
-1 -1 1 1 352:1 403:1 405:1 408:1 409:1 420:1 436:1 479:1 
-1 -1 0 1 62:1 107:1 344:1 346:1 367:1 372:1 397:1 407:1 408:1 412:1 420:1 436:1 441:1 449:1 463:1 480:1 
-1 -1 1 1 104:1 352:1 362:1 392:1 455:1 
-1 -1 0.8396721608003491 1 100:1 352:1 358:1 377:1 407:1 409:1 428:1 439:1 445:1 479:1 
-1 -1 1 1 368:1 370:1 415:1 448:1 466:1 
-1 -1 0 1 61:1 344:1 377:1 378:1 380:1 407:1 415:1 420:1 438:1 439:1 441:1 443:1 445:1 453:1 480:1 
-1 -1 1 1 100:1 351:1 384:1 399:1 405:1 407:1 409:1 421:1 445:1 463:1 
-1 -1 0.4364325741742614 1 346:1 367:1 371:1 407:1 428:1 436:1 439:1 451:1 461:1 
-1 -1 1 1 344:1 390:1 405:1 421:1 427:1 
-1 -1 0.1243556705643646 1 346:1 351:1 392:1 407:1 427:1 428:1 436:1 463:1 
-1 -1 0 1 72:1 368:1 370:1 377:1 395:1 403:1 407:1 409:1 415:1 419:1 421:1 428:1 436:1 441:1 448:1 466:1 480:1 
-1 -1 0 1 70:1 101:1 346:1 362:1 368:1 378:1 392:1 397:1 403:1 407:1 419:1 421:1 428:1 436:1 443:1 449:1 
-1 -1 0 1 352:1 399:1 408:1 409:1 420:1 423:1 428:1 436:1 439:1 463:1 
-1 -1 0 1 61:1 344:1 346:1 351:1 367:1 368:1 370:1 371:1 378:1 407:1 428:1 436:1 443:1 445:1 
-1 -1 1 1 346:1 351:1 370:1 407:1 428:1 451:1 
-1 -1 0 0 344:1 358:1 384:1 395:1 396:1 400:1 405:1 407:1 408:1 427:1 428:1 436:1 442:1 449:1 463:1 468:1 
-1 -1 0 1 107:1 344:1 346:1 362:1 368:1 370:1 384:1 392:1 397:1 402:1 405:1 408:1 416:1 420:1 427:1 439:1 455:1 458:1 463:1 483:1 
-1 -1 0.9476769851077563 1 344:1 351:1 371:1 395:1 407:1 427:1 428:1 451:1 455:1 461:1 463:1 483:1 
-1 -1 0 1 339:1 346:1 352:1 358:1 362:1 384:1 402:1 403:1 412:1 419:1 421:1 427:1 428:1 436:1 451:1 
-1 -1 0.3418184202999816 1 83:1 92:1 378:1 397:1 407:1 428:1 436:1 442:1 443:1 449:1 463:1 468:1 
-1 -1 1 1 397:1 405:1 412:1 417:1 420:1 428:1 436:1 442:1 449:1 463:1 468:1 480:1 
-1 -1 1 1 390:1 399:1 405:1 428:1 436:1 468:1 
-1 -1 0 1 68:1 351:1 403:1 407:1 428:1 439:1 445:1 449:1 466:1 480:1 
-1 -1 1 1 61:1 105:1 344:1 346:1 378:1 390:1 397:1 402:1 403:1 405:1 407:1 420:1 423:1 443:1 445:1 
-1 -1 1 1 346:1 380:1 384:1 421:1 428:1 439:1 442:1 463:1 
-1 -1 1 1 352:1 358:1 377:1 407:1 409:1 428:1 439:1 445:1 479:1 
-1 -1 1 1 65:1 352:1 378:1 384:1 407:1 409:1 428:1 442:1 443:1 445:1 
-1 -1 1 1 344:1 346:1 367:1 368:1 403:1 408:1 415:1 436:1 442:1 448:1 453:1 458:1 466:1 480:1 
-1 -1 1 1 351:1 400:1 409:1 427:1 428:1 442:1 
-1 -1 1 1 346:1 351:1 352:1 368:1 371:1 415:1 421:1 448:1 458:1 463:1 466:1 
-1 -1 1 1 346:1 354:1 403:1 408:1 442:1 449:1 453:1 455:1 458:1 483:1 
-1 -1 0 1 352:1 354:1 367:1 384:1 419:1 421:1 427:1 428:1 436:1 442:1 451:1 463:1 468:1 
-1 -1 0 1 352:1 358:1 362:1 377:1 407:1 409:1 428:1 439:1 445:1 479:1 
-1 -1 1 1 352:1 395:1 396:1 399:1 419:1 439:1 441:1 451:1 480:1 
-1 -1 1 1 346:1 372:1 402:1 408:1 428:1 439:1 441:1 442:1 480:1 
-1 -1 0 0.7070786759394199 86:1 346:1 351:1 354:1 358:1 362:1 367:1 400:1 407:1 428:1 436:1 441:1 442:1 449:1 453:1 480:1 
-1 -1 1 1 352:1 362:1 407:1 409:1 427:1 428:1 
-1 -1 0 1 61:1 346:1 351:1 352:1 378:1 395:1 407:1 408:1 428:1 442:1 443:1 445:1 
-1 -1 1 1 352:1 367:1 395:1 405:1 407:1 409:1 436:1 445:1 455:1 468:1 
-1 -1 1 1 352:1 407:1 428:1 438:1 449:1 
-1 -1 0 1 73:1 97:1 354:1 367:1 378:1 391:1 407:1 421:1 427:1 436:1 439:1 442:1 443:1 458:1 463:1 468:1 
-1 -1 0 1 346:1 352:1 362:1 368:1 399:1 415:1 428:1 436:1 441:1 448:1 463:1 466:1 468:1 
-0.7951915762470053 -1 0 0 354:1 368:1 391:1 392:1 412:1 415:1 420:1 428:1 436:1 438:1 439:1 442:1 445:1 448:1 453:1 466:1 468:1 483:1 
-1 -1 1 1 351:1 368:1 371:1 392:1 415:1 428:1 441:1 445:1 448:1 451:1 466:1 
-1 -1 1 1 358:1 377:1 391:1 407:1 421:1 428:1 438:1 439:1 445:1 479:1 
-1 -1 1 1 391:1 421:1 427:1 436:1 438:1 439:1 445:1 455:1 483:1 
-1 -1 0 1 346:1 352:1 362:1 371:1 407:1 408:1 416:1 427:1 428:1 442:1 448:1 455:1 458:1 
-1 -1 0.4307802419776648 1 97:1 101:1 346:1 367:1 368:1 378:1 391:1 405:1 407:1 415:1 436:1 443:1 448:1 463:1 466:1 
-1 -1 0 1 346:1 362:1 372:1 392:1 407:1 408:1 428:1 436:1 441:1 468:1 
-1 -1 0 1 354:1 367:1 391:1 395:1 397:1 427:1 428:1 436:1 439:1 442:1 448:1 449:1 453:1 458:1 463:1 480:1 
-1 -1 1 1 339:1 396:1 407:1 415:1 442:1 449:1 451:1 455:1 480:1 
-1 -1 1 1 354:1 367:1 396:1 403:1 428:1 436:1 442:1 449:1 463:1 468:1 
-1 -1 0 1 346:1 352:1 354:1 367:1 377:1 408:1 415:1 427:1 436:1 439:1 442:1 458:1 468:1 480:1 
-1 -1 1 1 351:1 367:1 409:1 427:1 428:1 439:1 442:1 
-1 -1 1 1 81:1 84:1 377:1 407:1 415:1 438:1 441:1 445:1 453:1 480:1 
-1 -1 0 1 346:1 351:1 367:1 395:1 400:1 407:1 421:1 424:1 428:1 441:1 442:1 445:1 453:1 
-0.7281124578706161 -1 0 0 72:1 346:1 352:1 368:1 384:1 387:1 390:1 407:1 408:1 419:1 421:1 436:1 439:1 448:1 458:1 466:1 468:1 480:1 
-1 -1 1 1 346:1 384:1 407:1 408:1 428:1 436:1 468:1 
-1 -1 1 1 346:1 362:1 408:1 436:1 441:1 458:1 468:1 
-1 -1 1 1 72:1 368:1 415:1 423:1 448:1 466:1 
-1 -1 1 1 346:1 408:1 417:1 439:1 441:1 453:1 480:1 
-1 -1 1 1 346:1 391:1 408:1 428:1 453:1 
-1 -1 1 1 346:1 408:1 428:1 453:1 
-1 -1 1 1 346:1 351:1 358:1 408:1 421:1 428:1 441:1 442:1 453:1 483:1 
-0.3203754696781785 -0.9336797934772183 0 0 85:1 346:1 351:1 354:1 358:1 367:1 400:1 407:1 428:1 439:1 441:1 442:1 449:1 453:1 458:1 463:1 
-1 -1 1 1 106:1 352:1 415:1 420:1 428:1 451:1 468:1 
-1 -1 1 1 346:1 351:1 352:1 399:1 412:1 416:1 421:1 428:1 438:1 439:1 441:1 
-0 -0.362785541392634 0 0 351:1 371:1 377:1 390:1 407:1 412:1 415:1 419:1 420:1 427:1 428:1 436:1 439:1 445:1 455:1 480:1 
-1 -1 1 1 77:1 106:1 352:1 402:1 420:1 439:1 463:1 483:1 
-1 -1 0 1 65:1 344:1 352:1 362:1 378:1 390:1 407:1 423:1 428:1 436:1 441:1 443:1 
-1 -1 1 1 372:1 392:1 417:1 439:1 
-1 -1 0 1 72:1 105:1 368:1 370:1 372:1 378:1 384:1 390:1 392:1 407:1 420:1 427:1 436:1 443:1 448:1 458:1 466:1 468:1 483:1 
-1 -1 1 1 65:1 105:1 378:1 390:1 407:1 420:1 427:1 428:1 443:1 458:1 
-1 -1 0 1 105:1 344:1 346:1 358:1 380:1 390:1 392:1 397:1 405:1 407:1 420:1 427:1 436:1 439:1 458:1 468:1 
-1 -1 1 1 346:1 362:1 390:1 395:1 403:1 407:1 412:1 428:1 451:1 479:1 480:1 
-1 -1 0 1 61:1 339:1 346:1 372:1 378:1 392:1 396:1 407:1 408:1 412:1 415:1 416:1 419:1 439:1 443:1 445:1 458:1 479:1 
-1 -1 0 1 346:1 384:1 396:1 408:1 412:1 415:1 416:1 421:1 428:1 436:1 439:1 442:1 468:1 
-1 -1 -1 1 280:1 345:1 347:1 349:1 357:1 374:1 434:1 469:1 
-1 -1 -1 1 341:1 345:1 347:1 348:1 349:1 350:1 355:1 361:1 364:1 365:1 366:1 394:1 434:1 469:1 470:1 472:1 
-1 -1 -1 1 343:1 345:1 347:1 349:1 356:1 361:1 364:1 369:1 374:1 413:1 425:1 434:1 469:1 
-1 -1 -1 1 345:1 347:1 348:1 349:1 353:1 356:1 361:1 366:1 369:1 374:1 434:1 444:1 456:1 460:1 469:1 
-1 -1 -1 1 232:1 233:1 234:1 235:1 345:1 347:1 349:1 355:1 361:1 369:1 394:1 413:1 425:1 434:1 444:1 456:1 460:1 470:1 472:1 
-1 -1 -1 1 281:1 341:1 345:1 347:1 349:1 356:1 434:1 469:1 
-1 -1 -1 1 236:1 340:1 341:1 345:1 347:1 348:1 349:1 361:1 364:1 366:1 374:1 394:1 434:1 459:1 469:1 472:1 
-1 -1 -1 1 216:1 222:1 228:1 345:1 349:1 356:1 410:1 434:1 459:1 469:1 474:1 
-1 -1 -1 1 278:1 341:1 345:1 347:1 349:1 356:1 434:1 469:1 
-1 -1 -1 1 345:1 348:1 350:1 355:1 361:1 366:1 374:1 434:1 469:1 
-1 -1 -1 1 356:1 361:1 364:1 434:1 469:1 482:1 
-1 -1 -1 1 341:1 345:1 347:1 349:1 356:1 434:1 469:1 
-1 -1 -1 1 341:1 342:1 345:1 347:1 349:1 361:1 374:1 434:1 469:1 
-1 -1 -1 1 340:1 356:1 394:1 434:1 469:1 
-1 -1 -1 1 224:1 349:1 353:1 356:1 366:1 369:1 374:1 394:1 434:1 469:1 470:1 472:1 474:1 
-1 -1 -1 1 224:1 257:1 340:1 345:1 365:1 411:1 425:1 434:1 447:1 459:1 460:1 469:1 472:1 
-1 -1 -1 1 252:1 345:1 348:1 363:1 364:1 469:1 472:1 474:1 
-1 -1 -1 1 340:1 341:1 345:1 347:1 355:1 360:1 361:1 394:1 459:1 469:1 472:1 
-1 -1 -1 1 347:1 349:1 357:1 361:1 366:1 469:1 470:1 472:1 
-1 -1 -1 1 345:1 349:1 361:1 374:1 394:1 434:1 444:1 456:1 460:1 469:1 
-1 -1 -1 1 345:1 349:1 356:1 410:1 459:1 469:1 474:1 
-1 -1 -1 1 345:1 347:1 349:1 350:1 361:1 434:1 447:1 456:1 460:1 465:1 469:1 470:1 472:1 
-1 -1 -1 1 340:1 341:1 343:1 345:1 347:1 349:1 363:1 365:1 369:1 376:1 394:1 404:1 413:1 414:1 422:1 440:1 444:1 456:1 457:1 459:1 460:1 467:1 472:1 
-1 -1 -1 1 340:1 345:1 347:1 348:1 356:1 359:1 360:1 364:1 369:1 394:1 413:1 444:1 454:1 456:1 457:1 460:1 469:1 
-1 -1 -1 1 0:1 1:1 43:1 231:1 340:1 345:1 347:1 349:1 355:1 361:1 366:1 369:1 382:1 386:1 394:1 414:1 422:1 425:1 429:1 430:1 446:1 447:1 456:1 460:1 464:1 472:1 478:1 
-1 -1 -1 1 340:1 345:1 347:1 348:1 349:1 359:1 360:1 361:1 364:1 366:1 369:1 375:1 382:1 413:1 414:1 418:1 422:1 444:1 446:1 456:1 457:1 478:1 482:1 
-1 -1 -1 1 214:1 340:1 345:1 347:1 348:1 359:1 360:1 364:1 369:1 394:1 413:1 414:1 418:1 422:1 426:1 429:1 444:1 447:1 454:1 456:1 457:1 460:1 482:1 
-1 -1 -1 1 341:1 345:1 347:1 355:1 357:1 363:1 364:1 365:1 366:1 394:1 414:1 418:1 426:1 429:1 469:1 470:1 472:1 
-1 -1 -1 1 340:1 341:1 345:1 347:1 355:1 356:1 359:1 363:1 364:1 369:1 454:1 456:1 457:1 460:1 464:1 469:1 470:1 
-0 -0.1466769656027734 -0 0 341:1 345:1 347:1 348:1 349:1 355:1 356:1 359:1 361:1 374:1 394:1 411:1 413:1 422:1 425:1 426:1 450:1 454:1 456:1 457:1 464:1 467:1 469:1 
-1 -1 -1 1 340:1 343:1 345:1 347:1 349:1 350:1 355:1 357:1 359:1 361:1 365:1 369:1 394:1 454:1 456:1 457:1 459:1 464:1 470:1 472:1 
-1 -1 -1 1 340:1 345:1 347:1 356:1 359:1 374:1 394:1 454:1 456:1 457:1 460:1 464:1 469:1 482:1 
-1 -1 -1 1 341:1 345:1 347:1 349:1 353:1 355:1 356:1 359:1 361:1 411:1 413:1 450:1 454:1 456:1 460:1 464:1 469:1 472:1 
-1 -1 -1 1 341:1 345:1 347:1 348:1 355:1 360:1 365:1 366:1 469:1 472:1 474:1 
-1 -1 -1 1 341:1 345:1 347:1 348:1 355:1 360:1 366:1 394:1 413:1 456:1 460:1 469:1 470:1 472:1 474:1 
-1 -1 -1 1 347:1 349:1 350:1 357:1 359:1 361:1 364:1 369:1 394:1 454:1 460:1 469:1 470:1 472:1 482:1 
-1 -1 -0.8848335795940461 1 345:1 347:1 348:1 349:1 365:1 369:1 373:1 388:1 394:1 398:1 410:1 411:1 414:1 418:1 422:1 425:1 429:1 430:1 431:1 433:1 437:1 450:1 452:1 457:1 460:1 464:1 465:1 469:1 472:1 
-0.1588015644104055 -0.3776851671664086 -0 0 341:1 342:1 345:1 347:1 348:1 349:1 350:1 355:1 357:1 363:1 365:1 366:1 374:1 394:1 418:1 434:1 447:1 452:1 459:1 469:1 470:1 472:1 474:1 
-1 -1 -0.7928322835679218 1 340:1 345:1 347:1 348:1 349:1 350:1 361:1 363:1 364:1 373:1 394:1 411:1 414:1 425:1 429:1 434:1 450:1 452:1 467:1 469:1 472:1 474:1 
-1 -1 -0.3622348537649335 1 341:1 345:1 347:1 348:1 349:1 360:1 374:1 394:1 413:1 414:1 418:1 422:1 425:1 429:1 431:1 437:1 440:1 444:1 452:1 454:1 456:1 469:1 482:1 
-1 -1 -1 1 340:1 341:1 343:1 345:1 347:1 348:1 350:1 355:1 356:1 361:1 363:1 364:1 366:1 369:1 394:1 469:1 474:1 
-1 -1 -1 1 340:1 341:1 345:1 347:1 348:1 356:1 364:1 369:1 394:1 413:1 418:1 425:1 426:1 437:1 444:1 454:1 469:1 482:1 
-1 -1 -1 1 341:1 347:1 348:1 349:1 350:1 353:1 355:1 360:1 361:1 369:1 394:1 418:1 440:1 467:1 469:1 472:1 
-0.4204541393169153 -0.7609319320217491 -0 0 345:1 347:1 348:1 349:1 365:1 374:1 385:1 394:1 414:1 418:1 422:1 429:1 431:1 432:1 440:1 446:1 447:1 450:1 452:1 454:1 457:1 460:1 464:1 469:1 472:1 482:1 
-1 -1 -1 1 345:1 347:1 349:1 369:1 374:1 394:1 414:1 418:1 431:1 432:1 440:1 446:1 447:1 454:1 457:1 460:1 464:1 469:1 482:1 
-1 -1 -1 1 340:1 343:1 345:1 356:1 361:1 364:1 369:1 394:1 425:1 426:1 474:1 482:1 
-1 -1 -1 1 345:1 347:1 348:1 349:1 350:1 360:1 361:1 364:1 394:1 425:1 426:1 469:1 
-0.4487181498373156 -0.6136804880752205 -0 0.07910654967653986 345:1 347:1 348:1 349:1 363:1 364:1 366:1 369:1 373:1 374:1 394:1 398:1 418:1 431:1 432:1 446:1 447:1 454:1 460:1 469:1 470:1 474:1 482:1 
-1 -1 -1 1 341:1 343:1 345:1 348:1 349:1 355:1 357:1 359:1 364:1 369:1 413:1 418:1 425:1 429:1 440:1 444:1 454:1 456:1 469:1 482:1 
-1 -1 -1 1 341:1 345:1 348:1 349:1 350:1 364:1 366:1 374:1 394:1 418:1 431:1 432:1 446:1 447:1 454:1 460:1 469:1 472:1 
-1 -1 -0.2242683284275815 1 345:1 347:1 349:1 364:1 394:1 413:1 418:1 422:1 425:1 426:1 431:1 432:1 437:1 446:1 447:1 454:1 456:1 460:1 469:1 470:1 472:1 482:1 
-1 -1 -1 1 341:1 345:1 347:1 348:1 349:1 350:1 355:1 365:1 374:1 418:1 431:1 432:1 446:1 447:1 454:1 460:1 469:1 472:1 
-1 -1 -1 1 341:1 347:1 349:1 350:1 355:1 360:1 361:1 369:1 418:1 431:1 432:1 446:1 447:1 454:1 460:1 474:1 482:1 
-1 -1 -1 1 343:1 347:1 348:1 349:1 357:1 359:1 363:1 369:1 373:1 394:1 411:1 414:1 425:1 431:1 434:1 450:1 452:1 456:1 469:1 470:1 472:1 482:1 
-1 -1 -0 0.9995052585460633 341:1 343:1 345:1 347:1 348:1 349:1 350:1 353:1 357:1 361:1 363:1 366:1 369:1 374:1 394:1 413:1 414:1 425:1 469:1 472:1 
-1 -1 -0.6561279441231781 1 340:1 342:1 345:1 347:1 348:1 349:1 355:1 356:1 357:1 363:1 364:1 369:1 394:1 414:1 425:1 429:1 456:1 469:1 470:1 474:1 
-1 -1 -1 1 359:1 394:1 406:1 413:1 418:1 422:1 429:1 430:1 431:1 432:1 433:1 446:1 447:1 454:1 457:1 460:1 
-1 -1 -1 1 359:1 406:1 418:1 425:1 432:1 440:1 454:1 
-1 -1 -1 1 340:1 345:1 347:1 356:1 360:1 374:1 388:1 394:1 410:1 414:1 422:1 425:1 429:1 430:1 433:1 450:1 452:1 457:1 460:1 469:1 482:1 
-1 -1 -0 -0 284:1 286:1 298:1 303:1 379:1 401:1 471:1 
-1 -1 -0 -0 284:1 285:1 286:1 294:1 298:1 299:1 322:1 406:1 471:1 
-1 -1 -0 -0 284:1 292:1 296:1 297:1 315:1 327:1 401:1 471:1 473:1 
-1 -1 -1 -1 128:1 286:1 287:1 296:1 386:1 
-1 -1 -1 -0 284:1 285:1 287:1 330:1 471:1 
-1 -1 -0 -0 284:1 285:1 289:1 291:1 336:1 389:1 401:1 404:1 471:1 
-1 -1 -1 -0 284:1 285:1 379:1 471:1 
-1 -1 -1 -1 285:1 291:1 302:1 336:1 473:1 477:1 
-1 -1 -0 -0 284:1 379:1 401:1 406:1 471:1 
-1 -1 -0.6100982625343202 -0 284:1 286:1 296:1 375:1 379:1 382:1 386:1 404:1 471:1 
-1 -1 -1 -1 291:1 298:1 301:1 389:1 471:1 
-1 -1 -0 -0 11:1 284:1 285:1 294:1 295:1 301:1 376:1 379:1 383:1 401:1 473:1 
-1 -1 -1 -0 11:1 285:1 286:1 288:1 314:1 471:1 473:1 
-1 -1 -1 -0 286:1 292:1 296:1 297:1 401:1 471:1 
-1 -1 -1 -0 286:1 287:1 289:1 319:1 324:1 325:1 383:1 401:1 406:1 473:1 
-1 -1 -1 -0 286:1 296:1 298:1 303:1 322:1 329:1 379:1 401:1 471:1 
-1 -1 -1 -0 284:1 285:1 289:1 291:1 406:1 471:1 
-1 -1 -1 -1 287:1 288:1 295:1 313:1 314:1 375:1 401:1 473:1 
-1 -1 -1 -0.8951644969101271 284:1 287:1 291:1 303:1 337:1 381:1 401:1 
-1 -1 -1 -1 287:1 296:1 338:1 471:1 
-0.4038801340637087 -1 -0 -0 286:1 287:1 288:1 292:1 294:1 296:1 303:1 376:1 379:1 389:1 401:1 471:1 
-1 -1 -1 -1 324:1 334:1 383:1 406:1 471:1 
-1 -1 -1 -1 285:1 297:1 303:1 401:1 477:1 
-0.7583430485990778 -0 -0 -0 11:1 284:1 285:1 297:1 306:1 309:1 383:1 401:1 406:1 471:1 
-1 -1 -1 -0 285:1 286:1 289:1 379:1 471:1 473:1 
-1 -1 -1 -1 285:1 291:1 296:1 318:1 401:1 473:1 
-1 -1 -1 -0 284:1 285:1 337:1 338:1 379:1 471:1 
-1 -1 -1 -0 284:1 285:1 286:1 289:1 303:1 304:1 379:1 401:1 
-1 -1 -0.8322236470797798 -0 284:1 287:1 288:1 301:1 302:1 471:1 477:1 
-1 -1 -0 -0 284:1 288:1 295:1 401:1 471:1 477:1 
-1 -1 -1 -1 320:1 401:1 473:1 477:1 
-1 -1 -1 -1 285:1 292:1 381:1 471:1 477:1 
-1 -1 -1 -1 286:1 295:1 401:1 471:1 
-1 -1 -1 -1 287:1 321:1 336:1 375:1 401:1 471:1 
-1 -1 -1 -1 284:1 288:1 295:1 401:1 406:1 
-1 -1 -0 -0 284:1 285:1 289:1 292:1 294:1 379:1 471:1 
-1 -1 -0 -0 285:1 286:1 288:1 297:1 300:1 305:1 401:1 471:1 
-1 -1 -1 -1 285:1 292:1 309:1 312:1 379:1 381:1 
-1 -1 -1 -1 11:1 284:1 300:1 316:1 326:1 473:1 
-0 -1 -0 -0 284:1 285:1 287:1 291:1 303:1 401:1 404:1 406:1 471:1 477:1 
-1 -1 -1 -1 287:1 288:1 292:1 296:1 335:1 404:1 
-1 -1 -1 -1 11:1 299:1 302:1 375:1 404:1 406:1 471:1 
-1 -1 -1 -1 284:1 287:1 289:1 471:1 
-1 -1 -1 -0 284:1 292:1 294:1 379:1 381:1 471:1 
-1 -1 -1 -1 284:1 287:1 288:1 292:1 296:1 335:1 379:1 382:1 
-1 -1 -1 -1 285:1 406:1 471:1 477:1 
-1 -1 -1 -1 316:1 320:1 375:1 401:1 477:1 
-1 -1 -1 -0 284:1 288:1 299:1 305:1 471:1 477:1 
-1 -1 -1 -1 297:1 316:1 320:1 401:1 
-0.6800725574593244 -0.3693800111233756 -0 -0 11:1 285:1 288:1 295:1 298:1 310:1 314:1 324:1 326:1 401:1 406:1 471:1 473:1 
-1 -1 -0.4244677988895691 -0 11:1 284:1 286:1 305:1 401:1 471:1 
-1 -1 -0 -0 11:1 287:1 292:1 309:1 316:1 319:1 320:1 330:1 379:1 401:1 471:1 477:1 
-1 -1 -1 -0 11:1 291:1 292:1 382:1 401:1 471:1 473:1 
-1 -1 -1 -1 11:1 286:1 287:1 338:1 471:1 
-1 -1 -0 -0 11:1 284:1 287:1 299:1 321:1 376:1 379:1 383:1 389:1 406:1 471:1 477:1 
-1 -1 -0 -0 11:1 287:1 299:1 305:1 379:1 401:1 471:1 473:1 477:1 
-1 -1 -1 -0 284:1 287:1 288:1 291:1 298:1 386:1 471:1 
-1 -1 -1 -0 288:1 292:1 294:1 383:1 401:1 406:1 471:1 
-1 -1 -1 -1 284:1 294:1 301:1 471:1 
-1 -1 -0.228088715501763 -0 292:1 303:1 379:1 401:1 471:1 473:1 477:1 
-1 -1 -1 -0 287:1 294:1 296:1 310:1 316:1 333:1 376:1 379:1 401:1 471:1 
-1 -1 -1 -0 284:1 288:1 289:1 300:1 314:1 471:1 473:1 
-0 -1 -0 -0 284:1 287:1 288:1 305:1 337:1 379:1 381:1 404:1 406:1 471:1 473:1 
-0.8057501471433111 -1 -0 -0 285:1 286:1 287:1 288:1 295:1 300:1 305:1 311:1 313:1 328:1 376:1 401:1 471:1 
-1 -1 -1 -0 286:1 287:1 299:1 471:1 473:1 477:1 
-1 -1 -0 -0 285:1 286:1 287:1 295:1 300:1 311:1 328:1 376:1 401:1 471:1 
-1 -1 -1 -0 284:1 287:1 333:1 337:1 379:1 471:1 
-1 -1 -0 -0 284:1 287:1 288:1 292:1 294:1 383:1 406:1 471:1 
-1 -1 -1 -1 285:1 306:1 471:1 473:1 477:1 
-1 -1 -1 -1 284:1 294:1 310:1 312:1 471:1 473:1 
-1 -1 -1 -1 316:1 320:1 375:1 401:1 477:1 
-1 -1 -1 -1 284:1 300:1 301:1 322:1 379:1 471:1 
-1 -1 -1 -0.5655498614210945 284:1 285:1 287:1 315:1 473:1 477:1 
-1 -1 -1 -1 284:1 288:1 337:1 379:1 471:1 
-1 -1 -0 -0 284:1 287:1 401:1 471:1 477:1 
-1 -1 -1 -1 288:1 294:1 383:1 406:1 471:1 
-1 -1 -1 -0 284:1 286:1 301:1 471:1 473:1 
-1 -1 -1 -0.2134569522804213 284:1 286:1 300:1 305:1 311:1 379:1 471:1 
-1 -1 -1 -1 291:1 401:1 473:1 477:1 
-1 -1 -1 -0 284:1 288:1 305:1 379:1 471:1 473:1 
-1 -1 -1 -0.9995052585460633 284:1 288:1 298:1 300:1 310:1 322:1 404:1 471:1 
-1 -1 -0 -0 284:1 299:1 337:1 379:1 381:1 401:1 404:1 406:1 471:1 477:1 
-1 -1 -1 -1 383:1 406:1 471:1 477:1 
-1 -1 -0 -0 11:1 284:1 296:1 301:1 311:1 379:1 383:1 406:1 471:1 
-1 -1 -0 -0 284:1 288:1 298:1 299:1 305:1 379:1 471:1 477:1 
-1 -1 -1 -1 284:1 324:1 406:1 471:1 
-1 -1 -1 -0 11:1 284:1 285:1 289:1 292:1 471:1 
-1 -1 -1 -0.4942268646735357 11:1 291:1 294:1 375:1 379:1 406:1 471:1 
-1 -0.5631565472429239 -0 -0 284:1 287:1 299:1 302:1 303:1 379:1 401:1 471:1 
-1 -1 -1 -0 286:1 295:1 296:1 307:1 379:1 401:1 471:1 
-1 -1 -1 -1 286:1 289:1 315:1 318:1 
-1 -1 -1 -0 11:1 284:1 285:1 287:1 288:1 292:1 310:1 314:1 315:1 473:1 
-1 -1 -0 -0 11:1 286:1 287:1 297:1 330:1 383:1 401:1 406:1 471:1 
-1 -1 -1 -1 11:1 288:1 289:1 383:1 406:1 473:1 
-0.2944182761176768 -0 -0 -0 284:1 287:1 288:1 289:1 292:1 300:1 333:1 389:1 401:1 471:1 
-1 -1 -0 -0 284:1 287:1 289:1 295:1 401:1 471:1 
-1 -1 -1 -1 291:1 297:1 303:1 325:1 401:1 471:1 
-1 -1 -1 -1 284:1 285:1 295:1 401:1 
-1 -1 -1 -0 11:1 302:1 303:1 309:1 375:1 401:1 406:1 471:1 
-1 -1 -1 -1 284:1 286:1 289:1 381:1 389:1 477:1 
-1 -0 -0 -0 284:1 285:1 287:1 289:1 306:1 401:1 471:1 
-1 -1 -0 -0 11:1 284:1 285:1 299:1 379:1 383:1 406:1 471:1 
-1 -1 -0 -0 284:1 286:1 295:1 313:1 321:1 401:1 471:1 477:1 
-1 -1 -1 -1 299:1 313:1 401:1 406:1 
-1 -1 -1 -0 284:1 285:1 471:1 477:1 
-0 -0.327294992318046 -0 -0 11:1 284:1 285:1 289:1 292:1 326:1 379:1 383:1 406:1 471:1 
-1 -1 -1 -0 285:1 287:1 301:1 334:1 401:1 471:1 477:1 
-1 -1 -0 -0 284:1 285:1 286:1 304:1 309:1 471:1 473:1 
-1 -1 -1 -0 284:1 285:1 286:1 288:1 297:1 304:1 306:1 401:1 
-1 -1 -1 -1 11:1 284:1 286:1 383:1 406:1 
-1 -1 -1 -1 286:1 295:1 313:1 401:1 471:1 
-1 -1 -1 -0.9107083743913612 284:1 285:1 287:1 298:1 304:1 401:1 
-0 -1 -0 -0 11:1 284:1 285:1 287:1 291:1 295:1 298:1 304:1 306:1 376:1 379:1 401:1 477:1 
-1 -1 -1 -1 284:1 285:1 286:1 304:1 318:1 
-1 -1 -0 -0 284:1 289:1 304:1 329:1 336:1 401:1 471:1 473:1 
-1 -1 -1 -1 285:1 307:1 379:1 471:1 
-1 -1 -1 -1 295:1 296:1 320:1 379:1 401:1 
-1 -1 -1 -0 284:1 285:1 304:1 406:1 471:1 473:1 
-1 -1 -1 -1 292:1 296:1 379:1 381:1 386:1 389:1 471:1 
-1 -1 -0.08921034778537998 -0 284:1 289:1 291:1 295:1 297:1 307:1 401:1 471:1 
-1 -1 -1 -1 306:1 307:1 379:1 471:1 
-1 -1 -1 -1 11:1 284:1 285:1 319:1 401:1 
-1 -1 -1 -1 286:1 288:1 294:1 302:1 381:1 383:1 389:1 406:1 
-1 -1 -1 -1 284:1 287:1 288:1 291:1 300:1 
-1 -1 -0 -0 284:1 285:1 286:1 296:1 302:1 307:1 318:1 329:1 379:1 404:1 471:1 
-1 -1 -0 -0 11:1 284:1 292:1 330:1 379:1 383:1 406:1 471:1 477:1 
-1 -1 -1 -1 329:1 401:1 471:1 477:1 
-1 -1 -1 -0 284:1 286:1 291:1 292:1 301:1 307:1 318:1 471:1 
-1 -1 -1 -1 289:1 325:1 471:1 477:1 
-1 -1 -0 -0 284:1 286:1 312:1 321:1 327:1 328:1 379:1 471:1 473:1 477:1 
