svm_type c_svc
kernel_type rbf
gamma 0.00423729
nr_class 3
total_sv 274
rho 0.251887 0.786021 0.732599
label 1 2 3
nr_sv 100 102 72
SV
1 1 59:1 98:1 115:1 128:1 135:1 149:1 154:1 
1 0 4:1 98:1 111:1 181:1 196:1 
1 1 113:1 114:1 121:1 196:1 
1 1 59:1 111:1 115:1 129:1 
1 1 59:1 124:1 130:1 196:1 
1 1 111:1 114:1 118:1 130:1 150:1 196:1 
1 1 114:1 122:1 129:1 145:1 146:1 196:1 
1 1 98:1 135:1 145:1 146:1 194:1 
1 0 59:1 115:1 124:1 196:1 
1 0 59:1 98:1 122:1 125:1 183:1 196:1 
1 1 111:1 112:1 113:1 121:1 129:1 138:1 
1 0 59:1 98:1 174:1 196:1 
1 0 111:1 113:1 114:1 118:1 128:1 196:1 
1 1 112:1 120:1 172:1 196:1 
1 1 4:1 118:1 120:1 177:1 179:1 183:1 196:1 
1 1 4:1 59:1 112:1 174:1 
1 0 59:1 98:1 114:1 147:1 172:1 196:1 
1 1 115:1 133:1 139:1 196:1 
1 0 59:1 115:1 129:1 144:1 196:1 
1 1 128:1 144:1 154:1 196:1 
1 1 48:1 111:1 144:1 183:1 
1 0 59:1 98:1 111:1 112:1 125:1 128:1 153:1 179:1 
1 1 112:1 119:1 122:1 135:1 194:1 
1 1 59:1 98:1 122:1 146:1 153:1 
1 0 59:1 98:1 112:1 121:1 125:1 128:1 179:1 
1 0 4:1 27:1 59:1 98:1 114:1 135:1 147:1 171:1 172:1 196:1 
1 1 4:1 59:1 118:1 172:1 181:1 
1 1 59:1 111:1 112:1 119:1 
1 0 4:1 59:1 98:1 119:1 124:1 125:1 129:1 132:1 145:1 147:1 157:1 172:1 183:1 
1 1 4:1 113:1 174:1 196:1 
1 1 59:1 133:1 137:1 149:1 157:1 171:1 179:1 181:1 
1 1 111:1 114:1 115:1 196:1 
1 1 4:1 59:1 115:1 122:1 129:1 149:1 179:1 
1 1 59:1 124:1 137:1 151:1 
0.4471971826095981 0 4:1 59:1 111:1 112:1 113:1 125:1 144:1 
1 1 59:1 98:1 112:1 119:1 147:1 
1 1 112:1 113:1 114:1 115:1 124:1 128:1 149:1 151:1 
1 1 111:1 115:1 124:1 137:1 172:1 196:1 
1 1 59:1 115:1 132:1 133:1 196:1 
1 1 59:1 98:1 121:1 132:1 
1 1 59:1 122:1 134:1 136:1 171:1 
1 0 4:1 59:1 119:1 120:1 171:1 196:1 
1 0 59:1 113:1 120:1 174:1 196:1 
1 1 59:1 111:1 113:1 114:1 138:1 
1 1 111:1 120:1 130:1 196:1 
1 1 113:1 120:1 125:1 196:1 
0.03477256985328402 0 59:1 111:1 120:1 196:1 
1 1 59:1 114:1 137:1 179:1 
1 0.7888244409808916 4:1 112:1 113:1 196:1 
1 1 114:1 124:1 151:1 172:1 196:1 
1 0 59:1 119:1 122:1 138:1 196:1 
1 0 59:1 124:1 132:1 144:1 151:1 196:1 
1 0 4:1 59:1 121:1 125:1 132:1 145:1 146:1 172:1 196:1 
1 1 59:1 98:1 125:1 128:1 129:1 145:1 
1 1 112:1 113:1 121:1 196:1 
1 1 113:1 128:1 135:1 196:1 
1 1 4:1 98:1 119:1 137:1 174:1 196:1 
1 0 4:1 111:1 112:1 114:1 132:1 196:1 
1 1 59:1 112:1 129:1 136:1 181:1 
1 1 59:1 98:1 111:1 125:1 145:1 
1 0 59:1 112:1 139:1 196:1 
1 1 59:1 98:1 134:1 136:1 
1 1 59:1 98:1 111:1 118:1 136:1 
1 0 4:1 59:1 174:1 177:1 196:1 
1 1 4:1 98:1 113:1 116:1 196:1 
1 0 4:1 59:1 113:1 174:1 177:1 180:1 196:1 
1 0.6260853331488557 4:1 59:1 171:1 196:1 
1 1 111:1 120:1 135:1 174:1 196:1 
1 1 111:1 113:1 119:1 123:1 128:1 151:1 179:1 
1 0 59:1 98:1 112:1 136:1 172:1 174:1 180:1 183:1 196:1 
1 0 4:1 59:1 124:1 150:1 196:1 
1 0 59:1 98:1 111:1 112:1 147:1 177:1 
1 1 112:1 134:1 136:1 139:1 196:1 
1 0 4:1 59:1 111:1 116:1 122:1 172:1 177:1 196:1 
1 0 4:1 59:1 120:1 122:1 196:1 
1 1 115:1 116:1 181:1 196:1 
1 0 4:1 59:1 130:1 196:1 
1 1 59:1 111:1 112:1 130:1 
1 1 59:1 98:1 119:1 131:1 
1 1 59:1 98:1 112:1 131:1 
1 0 59:1 111:1 121:1 131:1 172:1 177:1 196:1 
1 1 111:1 124:1 134:1 196:1 
1 1 59:1 111:1 112:1 134:1 
1 1 4:1 27:1 59:1 112:1 
1 0.4876515127869614 59:1 98:1 111:1 114:1 130:1 
1 1 59:1 112:1 122:1 151:1 
0.5504556724408567 0 59:1 112:1 134:1 196:1 
1 0 59:1 114:1 121:1 196:1 
1 1 144:1 150:1 151:1 196:1 
1 1 112:1 123:1 124:1 196:1 
1 0.3440986123383785 4:1 59:1 112:1 113:1 171:1 
1 1 112:1 113:1 181:1 196:1 
1 0 4:1 111:1 112:1 196:1 
1 1 59:1 114:1 180:1 196:1 
1 0 59:1 113:1 119:1 180:1 196:1 
1 1 113:1 119:1 123:1 157:1 196:1 
1 1 111:1 112:1 116:1 121:1 130:1 174:1 
1 1 4:1 27:1 137:1 196:1 
1 1 116:1 121:1 137:1 196:1 
1 0 59:1 111:1 112:1 114:1 138:1 
-1 0 2:1 23:1 31:1 172:1 194:1 235:1 
-1 1 59:1 98:1 112:1 196:1 
-1 1 59:1 98:1 111:1 112:1 144:1 
-1 1 10:1 11:1 180:1 183:1 
-1 1 2:1 13:1 179:1 194:1 
-1 1 4:1 5:1 7:1 22:1 180:1 
-1 1 11:1 18:1 180:1 235:1 
-1 1 3:1 56:1 179:1 232:1 
-1 1 1:1 16:1 179:1 230:1 
-1 0.4534393746553776 0:1 11:1 172:1 194:1 
-1 1 1:1 11:1 38:1 194:1 
-1 1 4:1 11:1 20:1 36:1 174:1 
-1 0.8875069482430922 5:1 10:1 13:1 17:1 30:1 177:1 194:1 
-0.1550673001438887 0 0:1 8:1 13:1 42:1 174:1 194:1 232:1 
-1 1 4:1 7:1 10:1 174:1 179:1 
-1 0 1:1 4:1 34:1 42:1 58:1 172:1 174:1 183:1 194:1 196:1 232:1 
-1 0 0:1 183:1 194:1 230:1 
-1 0 172:1 180:1 194:1 230:1 
-1 0 2:1 13:1 171:1 179:1 183:1 194:1 
-1 1 98:1 111:1 171:1 172:1 181:1 
-1 1 5:1 8:1 12:1 20:1 183:1 
-1 1 2:1 7:1 9:1 111:1 171:1 232:1 235:1 
-0.2898415199366914 0 10:1 12:1 16:1 172:1 194:1 230:1 
-1 1 3:1 9:1 20:1 232:1 
-1 0.6519541564636401 1:1 183:1 194:1 232:1 
-1 0.5734553744624277 4:1 8:1 17:1 27:1 183:1 230:1 232:1 
-1 1 3:1 6:1 226:1 230:1 232:1 
-1 0 1:1 3:1 15:1 17:1 58:1 171:1 179:1 194:1 196:1 232:1 
-0.4317396770123036 0 3:1 4:1 20:1 22:1 172:1 174:1 194:1 232:1 
-1 0 3:1 21:1 23:1 31:1 171:1 179:1 230:1 232:1 
-1 0.02119873852029419 9:1 20:1 172:1 181:1 194:1 
-1 0 0:1 1:1 4:1 49:1 171:1 172:1 194:1 
-1 1 1:1 2:1 4:1 180:1 183:1 196:1 232:1 
-1 0 0:1 4:1 23:1 179:1 194:1 230:1 
-1 0.7936074097639155 20:1 43:1 181:1 194:1 232:1 
-1 0 0:1 14:1 171:1 181:1 194:1 
-1 1 5:1 13:1 194:1 230:1 
-1 0.770622052253973 4:1 7:1 14:1 18:1 177:1 230:1 
-1 1 3:1 8:1 12:1 17:1 172:1 230:1 
-1 0 2:1 3:1 8:1 12:1 17:1 48:1 172:1 230:1 
-1 1 13:1 50:1 171:1 179:1 181:1 194:1 
-0.8797052697093953 0 1:1 9:1 11:1 50:1 171:1 177:1 179:1 194:1 
-1 0 4:1 5:1 9:1 23:1 179:1 180:1 230:1 235:1 
-1 0.3848007061885927 5:1 172:1 179:1 194:1 
-1 1 7:1 10:1 183:1 194:1 
-1 0.5680844242923825 0:1 1:1 4:1 11:1 35:1 56:1 230:1 
-1 0 4:1 5:1 56:1 179:1 180:1 194:1 
-1 1 1:1 7:1 8:1 12:1 16:1 183:1 
-1 1 0:1 2:1 59:1 172:1 174:1 
-1 1 0:1 56:1 179:1 194:1 
-0.6096890187569751 0 1:1 172:1 194:1 230:1 
-1 1 5:1 14:1 18:1 33:1 194:1 
-1 0 2:1 28:1 34:1 54:1 172:1 179:1 194:1 
-1 1 12:1 32:1 53:1 171:1 194:1 
-1 1 5:1 43:1 179:1 232:1 
-1 1 42:1 54:1 194:1 226:1 230:1 
-1 1 2:1 22:1 34:1 181:1 194:1 
-1 1 5:1 33:1 194:1 235:1 
-1 0.6747828543554476 0:1 35:1 194:1 230:1 
-1 1 1:1 16:1 18:1 20:1 30:1 230:1 
-1 1 5:1 21:1 51:1 172:1 226:1 230:1 
-1 0 6:1 14:1 194:1 226:1 232:1 
-1 1 2:1 22:1 226:1 230:1 
-1 1 2:1 6:1 14:1 20:1 
-1 0 3:1 32:1 36:1 53:1 172:1 183:1 226:1 230:1 
-1 1 4:1 13:1 194:1 232:1 
-1 1 0:1 4:1 172:1 230:1 
-1 1 7:1 18:1 31:1 37:1 171:1 172:1 
-1 1 0:1 3:1 8:1 32:1 42:1 53:1 
-1 1 6:1 7:1 24:1 180:1 
-1 1 0:1 4:1 30:1 42:1 181:1 
-1 0 4:1 15:1 16:1 51:1 172:1 194:1 232:1 
-0.4512477495146725 0 0:1 1:1 9:1 21:1 177:1 230:1 232:1 
-1 1 18:1 24:1 33:1 194:1 235:1 
-1 1 12:1 14:1 16:1 27:1 180:1 194:1 
-0.3362264411294226 0 0:1 1:1 17:1 21:1 27:1 183:1 230:1 232:1 
-1 1 17:1 20:1 22:1 25:1 48:1 172:1 
-1 1 1:1 14:1 25:1 226:1 
-1 0.9185364550003235 20:1 172:1 194:1 235:1 
-1 1 1:1 4:1 8:1 20:1 230:1 
-1 1 12:1 25:1 32:1 194:1 
-1 1 3:1 30:1 36:1 54:1 226:1 
-1 1 21:1 49:1 50:1 177:1 194:1 
-1 0 0:1 1:1 32:1 38:1 43:1 177:1 180:1 232:1 235:1 
-1 0.441308095412736 2:1 3:1 25:1 31:1 34:1 48:1 171:1 194:1 
-1 1 0:1 172:1 177:1 232:1 
-1 1 23:1 28:1 177:1 194:1 232:1 
-1 1 34:1 53:1 179:1 194:1 
-1 1 0:1 9:1 32:1 180:1 
-1 1 28:1 35:1 226:1 230:1 232:1 
-1 1 0:1 1:1 3:1 28:1 56:1 
-1 0 2:1 4:1 5:1 172:1 194:1 
-1 0 2:1 9:1 177:1 194:1 232:1 
-1 0 3:1 4:1 11:1 17:1 25:1 177:1 232:1 235:1 
-1 1 6:1 14:1 23:1 232:1 235:1 
-1 1 7:1 8:1 48:1 177:1 230:1 
-1 1 0:1 7:1 8:1 14:1 23:1 24:1 
-1 1 6:1 14:1 25:1 226:1 
-1 1 20:1 172:1 194:1 235:1 
-0.8789084487003894 0 3:1 36:1 194:1 226:1 230:1 
-1 1 21:1 49:1 50:1 177:1 194:1 
-1 1 0:1 3:1 6:1 14:1 172:1 180:1 
-1 -1 73:1 175:1 197:1 204:1 208:1 210:1 214:1 217:1 227:1 
-1 -1 176:1 184:1 197:1 202:1 205:1 208:1 210:1 213:1 215:1 218:1 223:1 234:1 
-1 -1 108:1 195:1 197:1 205:1 207:1 208:1 214:1 215:1 221:1 223:1 227:1 234:1 
-1 -1 108:1 197:1 207:1 208:1 210:1 216:1 221:1 227:1 
-1 -1 68:1 168:1 189:1 193:1 197:1 198:1 205:1 210:1 229:1 
-0.8092409086789899 -1 158:1 160:1 164:1 167:1 168:1 186:1 193:1 198:1 200:1 202:1 208:1 209:1 210:1 216:1 223:1 224:1 
-1 -1 164:1 195:1 200:1 202:1 208:1 209:1 212:1 218:1 225:1 229:1 
-0 -0.3116325502979264 159:1 160:1 178:1 187:1 197:1 199:1 200:1 205:1 206:1 210:1 216:1 221:1 
-0 -0.2588986498724628 73:1 94:1 165:1 175:1 188:1 189:1 197:1 199:1 206:1 209:1 210:1 214:1 216:1 217:1 
-1 -1 61:1 160:1 165:1 168:1 175:1 197:1 198:1 208:1 214:1 217:1 218:1 
-1 -1 161:1 168:1 186:1 197:1 205:1 207:1 210:1 212:1 214:1 236:1 
-1 -1 68:1 161:1 191:1 193:1 195:1 197:1 209:1 212:1 218:1 224:1 227:1 
-0.2207429055057267 -1 160:1 167:1 187:1 198:1 199:1 201:1 203:1 205:1 210:1 214:1 217:1 218:1 
-0.1914752896325544 -0.7139068080462661 61:1 175:1 186:1 187:1 197:1 199:1 205:1 209:1 210:1 217:1 218:1 219:1 224:1 
-1 -1 162:1 193:1 195:1 198:1 199:1 205:1 212:1 233:1 
-0 -0.5660785110546176 62:1 107:1 159:1 160:1 166:1 170:1 189:1 197:1 198:1 200:1 205:1 212:1 215:1 220:1 227:1 234:1 
-1 -1 104:1 162:1 165:1 186:1 223:1 
-1 -1 100:1 162:1 164:1 173:1 197:1 199:1 210:1 214:1 218:1 233:1 
-1 -1 167:1 168:1 201:1 219:1 228:1 
-1 -1 61:1 159:1 173:1 175:1 176:1 197:1 201:1 205:1 213:1 214:1 215:1 217:1 218:1 222:1 234:1 
-1 -1 100:1 161:1 178:1 190:1 195:1 197:1 199:1 206:1 218:1 227:1 
-1 -1 160:1 166:1 169:1 197:1 210:1 212:1 214:1 221:1 225:1 
-1 -1 159:1 184:1 195:1 206:1 209:1 
-1 -1 160:1 161:1 186:1 197:1 209:1 210:1 212:1 227:1 
-1 -1 162:1 190:1 198:1 199:1 205:1 207:1 210:1 212:1 214:1 227:1 
-1 -1 160:1 161:1 168:1 197:1 210:1 221:1 
-1 -1 159:1 161:1 169:1 187:1 197:1 209:1 210:1 221:1 223:1 225:1 227:1 236:1 
-0.05668880220814294 -0.7990539681939482 158:1 160:1 162:1 164:1 165:1 178:1 192:1 193:1 200:1 204:1 206:1 209:1 210:1 212:1 221:1 
-1 -1 83:1 92:1 175:1 189:1 197:1 210:1 212:1 216:1 217:1 220:1 227:1 229:1 
-1 -1 189:1 195:1 200:1 203:1 205:1 210:1 212:1 216:1 220:1 227:1 229:1 234:1 
-1 -1 184:1 190:1 195:1 210:1 212:1 229:1 
-1 -1 68:1 161:1 193:1 197:1 210:1 214:1 218:1 220:1 228:1 234:1 
-1 -1 61:1 105:1 159:1 160:1 175:1 184:1 189:1 192:1 193:1 195:1 197:1 205:1 207:1 217:1 218:1 
-1 -1 160:1 176:1 178:1 206:1 210:1 214:1 216:1 227:1 
-1 -1 162:1 164:1 173:1 197:1 199:1 210:1 214:1 218:1 233:1 
-1 -1 65:1 162:1 175:1 178:1 197:1 199:1 210:1 216:1 217:1 218:1 
-1 -1 159:1 160:1 166:1 167:1 193:1 198:1 201:1 212:1 216:1 219:1 222:1 224:1 228:1 234:1 
-1 -1 161:1 191:1 199:1 209:1 210:1 216:1 
-1 -1 160:1 161:1 162:1 167:1 169:1 201:1 206:1 219:1 224:1 227:1 228:1 
-1 -1 160:1 163:1 193:1 198:1 216:1 220:1 222:1 223:1 224:1 236:1 
-1 -1 162:1 163:1 166:1 178:1 204:1 206:1 209:1 210:1 212:1 216:1 221:1 227:1 229:1 
-1 -1 162:1 164:1 165:1 173:1 197:1 199:1 210:1 214:1 218:1 233:1 
-1 -1 162:1 187:1 188:1 190:1 204:1 214:1 215:1 221:1 234:1 
-1 -1 160:1 170:1 192:1 198:1 210:1 214:1 215:1 216:1 234:1 
-1 -1 162:1 165:1 197:1 199:1 209:1 210:1 
-1 -1 162:1 166:1 187:1 195:1 197:1 199:1 212:1 218:1 223:1 229:1 
-1 -1 162:1 197:1 210:1 213:1 220:1 
-1 -1 161:1 167:1 169:1 186:1 201:1 210:1 215:1 218:1 219:1 221:1 228:1 
-1 -1 164:1 173:1 185:1 197:1 206:1 210:1 213:1 214:1 218:1 233:1 
-1 -1 185:1 206:1 209:1 212:1 213:1 214:1 218:1 223:1 236:1 
-1 -1 97:1 101:1 160:1 166:1 167:1 175:1 185:1 195:1 197:1 201:1 212:1 217:1 219:1 227:1 228:1 
-0.9822902204584671 -1 160:1 165:1 170:1 186:1 197:1 198:1 210:1 212:1 215:1 229:1 
-1 -1 158:1 188:1 197:1 201:1 216:1 220:1 221:1 223:1 234:1 
-1 -1 163:1 166:1 188:1 193:1 210:1 212:1 216:1 220:1 227:1 229:1 
-0 -0.0908746857711778 160:1 162:1 163:1 166:1 173:1 198:1 201:1 209:1 212:1 214:1 216:1 224:1 229:1 234:1 
-1 -1 161:1 166:1 199:1 209:1 210:1 214:1 216:1 
-1 -1 81:1 84:1 173:1 197:1 201:1 213:1 215:1 218:1 222:1 234:1 
-1 -1 160:1 178:1 197:1 198:1 210:1 212:1 229:1 
-1 -1 160:1 165:1 198:1 212:1 215:1 224:1 229:1 
-1 -1 72:1 167:1 201:1 207:1 219:1 228:1 
-1 -1 160:1 198:1 203:1 214:1 215:1 222:1 234:1 
-1 -1 160:1 185:1 198:1 210:1 222:1 
-1 -1 160:1 198:1 210:1 222:1 
-1 -1 160:1 161:1 164:1 198:1 206:1 210:1 215:1 216:1 222:1 236:1 
-1 -1 106:1 162:1 201:1 205:1 210:1 221:1 229:1 
-1 -1 160:1 161:1 162:1 190:1 200:1 202:1 206:1 210:1 213:1 214:1 215:1 
-1 -1 77:1 106:1 162:1 192:1 205:1 214:1 227:1 236:1 
-0.9543848077897149 -1 65:1 159:1 162:1 165:1 175:1 184:1 197:1 207:1 210:1 212:1 215:1 217:1 
-1 -1 170:1 186:1 203:1 214:1 
-0.03183696498149131 -0.3988514163758038 72:1 105:1 167:1 168:1 170:1 175:1 178:1 184:1 186:1 197:1 205:1 209:1 212:1 217:1 219:1 224:1 228:1 229:1 236:1 
-1 -1 65:1 105:1 175:1 184:1 197:1 205:1 209:1 210:1 217:1 224:1 
-1 -1 160:1 165:1 184:1 187:1 193:1 197:1 200:1 210:1 221:1 233:1 234:1 
